const _bestModel = {
    "levels": [
        {
            "inputs": [0.8544550751202439, 0, 0, 0, 0, 0, 0, 0, 0, 0, 0.8426011997274704],
            "outputs": [-1.3062737674020988, -0.12874296069907842, -0.7067086814654198, 2.4835014753647866, -0.681705224689367, 0.7902840142684932, -0.09949542329434582, 0.7804577497492575, 3.0151520598359762, 0.8236842089692428, -1.0059091376153177, 0.23840411592139107],
            "weights": [[-0.13744877128073615, -0.25382021190074383, -0.3714166000629277, 1.5797462054885258, 0.35208472072422187, 0.4507211598178889, 0.8571833606093635, -0.3115256258714659, 3.2271196325108615, 0.02192305316847577, 0.14232621681082783, 2.7832461967827715],
            [-2.652290602967995, -0.7365001543346069, 0.30159089756594487, -0.12411648672156392, 1.000859690052646, -0.6758875167205664, 0.3522731330301265, -0.016627770194520726, 3.281785410124421, -0.5419019288123383, 1.7381725070191565, 1.650606610439278],
            [-0.3238920404816685, -0.9434968475858911, -0.14621249962685312, -1.4435841454599176, -1.167130283115791, -1.055370608930522, -3.505305678529708, -0.8395349334868427, -0.8832874855181801, 2.7507418382942834, 1.1365379556035216, -0.23877702891999406],
            [0.10214762813016019, -1.4779560059333237, 0.06204321797234903, 2.9391135912518735, 2.102399699617076, 0.1731175145509031, -1.7086798562510914, -0.7844773240330986, -3.02536292628912, -0.3434906044317196, 0.05857120122467216, -1.8291373059688922],
            [2.328373776651128, -1.2979034281439816, -0.2306264769217671, 0.8039053624313424, 0.33284460629715823, 0.7597136778566348, 0.7520993532469734, -2.068731757152377, 1.5369620351543332, -0.4396873367328975, 1.0814827908876843, -1.8296998949121814],
            [-0.04452158973004341, -0.7154223250185078, -0.5149988084420963, 0.5206691266696086, 0.7190634078446295, 0.8543463514907084, 0.566644139391312, -0.1586966158354032, 0.17895902998603191, -0.8438328007099433, -0.43973581595626166, -0.9877610440201758],
            [-0.36676353466607203, -0.6391850111217906, 1.612474859073468, 0.17790228198842123, 0.6553127159779226, 1.920128078978104, -0.2795593123171915, -0.22005381384012787, 0.6312437210193329, 1.7419999875310634, -0.5932973427250079, -0.31606147189477846],
            [-0.3732049775855823, 0.6338965700546474, -0.5748719987536752, 0.0014129728370096209, -0.02321669014251216, 3.5220366671630656, -0.3026985424720116, 1.3397951079838073, -0.3043748926755113, -1.839190838645758, -0.12140017303378421, -0.48778931460398167],
            [-0.3159872559175567, 1.1120557875917685, -1.4669097594706437, 0.09366959421335139, -0.7077005938158827, 0.14896449339110257, -0.12514817229624536, 0.6360909163002796, 1.3402961814055878, -0.18113285752425565, 0.17779936318885214, 0.8121079358972464],
            [0.4416061747306313, -1.1621450520396495, -0.9324661251211022, -1.8889720897909597, -0.19139404862096396, -2.8482582980922606, 1.2006090582605706, 0.45056358288790027, -0.7998890571636394, 0.16749474595282704, -0.21784993961322524, 0.48796569235089776],
            [-1.1123410705962387, 0.2269990935188829, -0.763769452730729, 1.2298280258391003, -1.0019797084193975, 0.5509210933396766, -0.8219795355710872, 1.2881201394376784, 0.22729134894464328, 1.129367409032793, -1.441241582440926, -2.514574078773809]],
            "biases": [-0.2515700466217027, -0.10313470100845111, 0.25420317462836045, 0.09742474265267587, -0.1382764967677068, -0.059043742405165814, -0.13931915325201563, -0.038729173078162496, 0.06620734850846247, -0.14665438885682847, 0.08687139056984836, -0.020971586650354958]
        },
        {
            "inputs": [0.21311104568104253, 0.46785864214698447, 0.3303265087242573, 0.9229770880430451, 0.33588082043996337, 0.6878923107001753, 0.47514664344518237, 0.6857787611032903, 0.9532539712811229, 0.6950178352863751, 0.26778120188940974, 0.5593203313249976],
            "outputs": [3.4500692221003653, -0.4143087018299259, -0.7556066512698356, -3.0489503201720187],
            "weights": [[0.2029254080219143, -3.5624479745653876, 1.929561821978231, -0.095885526086179],
            [0.23370192984434807, -0.11353350142748415, -2.91661154427766, -0.25856639015229704],
            [0.12297901041031606, 4.2632628782693835, -1.7493427218133388, -0.404550058780176],
            [1.0025409373737468, 3.2576352922819134, -2.804060678079552, -0.7771615457509479],
            [0.526525100673321, -2.6333257327922577, 1.1539197293154408, -0.6996257287916879],
            [0.5637910357057568, -2.987682183411903, 3.771364869069635, -0.44883439959227533],
            [0.06075872552200324, -2.7816077643937143, 2.470231661599747, -0.3019652022837586],
            [0.38124832827677196, -1.1945626877411122, -1.4294046824407491, -0.20750294752643544],
            [0.6726932600146583, 4.985076609730806, -2.4097089904744187, -0.5600618239695937],
            [0.672674277730802, -3.8028900691156577, 1.2162304140422324, -0.641464523514407],
            [0.46838640913865004, 0.35598945902003387, -3.1996933281206754, -0.4433779581475902],
            [0.29673391679861655, -2.5118375887946405, 4.462793384705858, -0.2421922872036426]],
            "biases": [0.07637752445960246, 0.26420587929908673, 0.0007925368804837119, 0.006813631598811535]
        }]
}

